// Neural Network File Format by Kyle Julian, Stanford 2016
2,3,1,32,
3,32,1,
0.0,0.0,
8.62279e-02,2.55660e-01,3.60333e-01,
3.61827e-01,-3.43214e-01,3.07499e-01,
-8.49828e-02,1.31160e-01,3.98391e-03,
-1.90617e-01,2.70301e-01,-6.38904e-02,
2.44771e-01,3.72309e-01,3.21767e-01,
1.33040e-02,-2.07206e-01,1.53441e-01,
-2.85437e-01,1.97973e-01,-2.25256e-01,
1.86964e-01,4.66539e-02,2.80328e-01,
3.41882e-01,-1.88755e-01,1.31006e-01,
4.14022e-01,-6.86857e-02,-1.67972e-01,
-4.11582e-01,-9.55062e-02,1.25628e-01,
1.56636e-01,-2.57352e-01,-2.38574e-01,
2.72440e-01,-3.73112e-01,-2.09844e-01,
1.21650e-01,-3.78055e-01,2.72493e-01,
-5.67181e-02,-2.94944e-01,1.30092e-01,
-1.43816e-01,-1.01186e-01,-1.12637e-01,
2.74423e-01,2.49362e-01,-2.08446e-01,
9.36619e-02,5.11145e-02,-2.00161e-01,
-2.90123e-01,3.47362e-01,3.25717e-01,
-2.30535e-01,1.01836e-01,-2.62395e-01,
-1.29332e-01,9.69385e-02,1.66895e-01,
-1.08016e-02,-4.89143e-02,-1.61918e-01,
7.85206e-02,3.85772e-01,5.66335e-02,
-2.58673e-01,3.34293e-01,9.83222e-02,
1.35402e-01,1.11931e-01,-3.42530e-01,
-7.64515e-02,-4.10855e-01,-3.28150e-01,
-2.10061e-01,3.80286e-01,-3.94361e-01,
2.97035e-01,-3.71971e-01,1.43649e-02,
-1.23207e-01,2.98447e-01,-7.60981e-02,
-1.35217e-01,-6.55693e-02,4.09869e-01,
3.84288e-01,2.08378e-01,-2.66797e-01,
3.80211e-01,-3.67567e-01,5.50490e-02,
0.00000e+00,
0.00000e+00,
0.00000e+00,
0.00000e+00,
0.00000e+00,
0.00000e+00,
0.00000e+00,
0.00000e+00,
0.00000e+00,
0.00000e+00,
0.00000e+00,
0.00000e+00,
0.00000e+00,
0.00000e+00,
0.00000e+00,
0.00000e+00,
0.00000e+00,
0.00000e+00,
0.00000e+00,
0.00000e+00,
0.00000e+00,
0.00000e+00,
0.00000e+00,
0.00000e+00,
0.00000e+00,
0.00000e+00,
0.00000e+00,
0.00000e+00,
0.00000e+00,
0.00000e+00,
0.00000e+00,
0.00000e+00,
-2.70391e-01,-2.93908e-01,1.52263e-01,1.04751e-01,2.24460e-01,-2.71014e-01,1.23046e-01,-2.80019e-01,-3.11702e-01,2.74814e-01,3.55656e-02,2.16933e-01,-2.28052e-01,9.82160e-02,-5.09108e-02,-1.40821e-01,-1.97146e-01,3.22513e-01,-4.80336e-02,2.67558e-01,-2.72413e-02,1.64098e-01,-3.22730e-01,4.55618e-03,6.51233e-02,-1.83505e-01,-3.75955e-01,-1.72875e-01,2.49768e-01,-2.50931e-01,2.75434e-01,1.82490e-01,
0.00000e+00,
